{
    "weights": [
        [
            [
                -2.1548473076667225,
                -2.105038920121338
            ],
            [
                -0.1990006200359475,
                -0.2752468247685853
            ],
            [
                0.4667897756863331,
                1.1870358832017063
            ],
            [
                -2.4861136106634114,
                1.2365496529941369
            ],
            [
                0.41672841922315645,
                0.8562847263401908
            ],
            [
                -4.013907480423359,
                -3.933834403264474
            ],
            [
                0.20333074600553222,
                0.2544570058085241
            ],
            [
                -0.334424272898662,
                1.65866054167233
            ]
        ],
        [
            [
                -1.0106280483630612,
                0.6642792035163811,
                -0.7184824709773406,
                1.3497224224466224,
                -0.4885618821342868,
                -2.267888125213555,
                -0.3613578314411602,
                -0.7042690109735485
            ]
        ]
    ],
    "biases": [
        [
            [
                -0.33990121987483535
            ],
            [
                0.35866454081529614
            ],
            [
                -0.951327664335173
            ],
            [
                -0.7086385131311671
            ],
            [
                -0.6803198416404018
            ],
            [
                1.0747665393499295
            ],
            [
                -0.5667684601694095
            ],
            [
                -0.07425002750775879
            ]
        ],
        [
            [
                1.0179979846864575
            ]
        ]
    ]
}